Language model created by QuickLM on Fri Dec  8 10:17:32 EST 2017
Copyright (c) 1996-2010 Carnegie Mellon University and Alexander I. Rudnicky

The model is in standard ARPA format, designed by Doug Paul while he was at MITRE.

The code that was used to produce this language model is available in Open Source.
Please visit http://www.speech.cs.cmu.edu/tools/ for more information

The (fixed) discount mass is 0.5. The backoffs are computed using the ratio method.
This model based on a corpus of 15 sentences and 333 words

\data\
ngram 1=333
ngram 2=581
ngram 3=596

\1-grams:
-1.9304 </s> -0.3010
-1.9304 <s> -0.2823
-2.1065 A -0.2976
-2.8055 ACROSS -0.2949
-3.1065 ADVERSARIES -0.2921
-3.1065 AGAINST -0.2976
-3.1065 AGE. -0.3007
-2.6294 ALL -0.2983
-3.1065 ALSO -0.2952
-2.8055 AMERICA -0.2969
-3.1065 AMERICA'S -0.3007
-3.1065 AMERICANS -0.2983
-3.1065 AMERICANS. -0.2959
-3.1065 AMIDST -0.3007
-3.1065 AN -0.3007
-3.1065 ANCESTORS. -0.3000
-1.6916 AND -0.2733
-2.2614 ARE -0.2833
-2.8055 AS -0.2876
-3.1065 ASIDE -0.3007
-2.6294 AT -0.2872
-3.1065 BADLY -0.3007
-2.5045 BE -0.2997
-2.6294 BECAUSE -0.2893
-2.4076 BEEN -0.2872
-3.1065 BEEN. -0.3000
-3.1065 BEFORE -0.2997
-3.1065 BESTOWED, -0.3007
-3.1065 BETTER -0.3007
-3.1065 BORNE -0.3003
-3.1065 BRINGS -0.3007
-3.1065 BUSH -0.2976
-3.1065 BUSINESSES -0.3007
-2.3284 BUT -0.2956
-2.8055 BY -0.2823
-3.1065 CARE -0.2983
-2.8055 CARRIED -0.2990
-3.1065 CARRY -0.3007
-3.1065 CELEBRATED -0.2990
-3.1065 CHALLENGES -0.2980
-3.1065 CHANCE -0.2962
-3.1065 CHILDISH -0.3007
-3.1065 CHOICES -0.2921
-3.1065 CHOOSE -0.2952
-3.1065 CHOSEN -0.3007
-3.1065 CITIZENS: -0.3000
-3.1065 CLOUDS -0.2921
-3.1065 COLLECTIVE -0.3007
-2.6294 COME -0.2962
-3.1065 CONCORD -0.2921
-3.1065 CONFIDENCE -0.3003
-3.1065 CONFLICT -0.2921
-3.1065 CONSEQUENCE -0.2925
-3.1065 COOPERATION -0.3007
-3.1065 COSTLY; -0.2952
-3.1065 CRISIS -0.2983
-3.1065 CRISIS, -0.3007
-3.1065 DATA -0.2921
-3.1065 DAY -0.3007
-2.8055 DAY, -0.2980
-3.1065 DECLINE -0.2983
-3.1065 DESERVE -0.2976
-3.1065 DIED, -0.2980
-3.1065 DISCORD. -0.2959
-3.1065 DOCUMENTS. -0.2959
-3.1065 DOERS, -0.2883
-3.1065 DOGMAS, -0.2976
-3.1065 DURING -0.3007
-3.1065 EACH -0.3007
-3.1065 EARNED. -0.2952
-3.1065 EARTH. -0.2959
-3.1065 EASILY -0.2997
-3.1065 ECONOMY -0.2983
-3.1065 END -0.2962
-3.1065 ENDURED -0.2883
-3.1065 ENDURING -0.3007
-3.1065 ENERGY -0.3007
-3.1065 EQUAL, -0.3000
-3.1065 EVERY -0.3000
-3.1065 EVIDENCE -0.2976
-3.1065 FACE -0.2986
-3.1065 FAIL -0.3000
-3.1065 FAILURE -0.2962
-3.1065 FAINT-HEARTED -0.2997
-3.1065 FAITHFUL -0.2962
-3.1065 FALSE -0.3007
-3.1065 FAME. -0.3007
-3.1065 FAR -0.3000
-3.1065 FAR-REACHING -0.3007
-3.1065 FEAR -0.2976
-3.1065 FEAR, -0.3007
-3.1065 FELLOW -0.3007
-3.1065 FEW -0.3007
-2.1065 FOR -0.2816
-3.1065 FORBEARERS, -0.2921
-3.1065 FORTY-FOUR -0.3007
-3.1065 FORWARD -0.2976
-3.1065 FOUGHT -0.2921
-3.1065 FOUNDING -0.3007
-3.1065 FREE, -0.2921
-3.1065 FREEDOM. -0.2959
-3.1065 FROM -0.3000
-3.1065 FULL -0.3007
-3.1065 FURTHER -0.3007
-3.1065 GATHER -0.3000
-3.1065 GATHERING -0.3007
-2.6294 GENERATION -0.2865
-3.1065 GENERATION: -0.2883
-3.1065 GENEROSITY -0.2921
-3.1065 GETTYSBURG; -0.3007
-3.1065 GIFT, -0.2976
-3.1065 GIVEN. -0.2993
-3.1065 GOD-GIVEN -0.3007
-3.1065 GRATEFUL -0.2976
-2.8055 GREATNESS -0.2897
-3.1065 GREED -0.2921
-3.1065 GRIEVANCES -0.2921
-3.1065 HAPPINESS. -0.2959
-2.8055 HARD -0.3003
-2.2034 HAS -0.2952
-3.1065 HATRED. -0.2952
-2.2034 HAVE -0.2966
-3.1065 HE -0.2983
-3.1065 HEALTH -0.3007
-3.1065 HERE -0.3003
-3.1065 HIGH -0.3007
-3.1065 HIS -0.3007
-3.1065 HISTORY; -0.2962
-3.1065 HOMES -0.2983
-3.1065 HOPE -0.3000
-3.1065 HUMBLED -0.3003
-2.6294 I -0.3000
-3.1065 IDEA, -0.3007
-3.1065 IDEALS -0.2925
-2.1523 IN -0.2819
-2.8055 INAUGURATION. -0.2959
-3.1065 INDICATORS -0.2925
-3.1065 INEVITABLE, -0.2921
-3.1065 IRRESPONSIBILITY -0.2993
-2.2034 IS -0.2928
-2.4076 IT -0.2973
-3.1065 ITS -0.3007
-3.1065 JOBS -0.3007
-3.1065 JOURNEY -0.2983
-3.1065 KHE -0.3007
-3.1065 KNOW -0.3007
-3.1065 LABOR, -0.3003
-3.1065 LAND -0.2997
-3.1065 LASH -0.2925
-3.1065 LEISURE -0.3000
-2.8055 LESS -0.3003
-3.1065 LESS. -0.2993
-3.1065 LIFE. -0.2959
-3.1065 LIKE -0.3007
-3.1065 LONG -0.2983
-3.1065 LONG, -0.3007
-3.1065 LOST; -0.3007
-3.1065 LOWER -0.3007
-3.1065 MAKE -0.3003
-3.1065 MAKERS -0.2925
-3.1065 MALIA -0.3007
-3.1065 MANY. -0.2986
-3.1065 MANY; -0.2921
-3.1065 MEASURABLE -0.2990
-3.1065 MEASURE -0.2925
-3.1065 MEN -0.2921
-3.1065 MET -0.3007
-3.1065 MET. -0.2959
-3.1065 MIDST -0.2925
-3.1065 MINDFUL -0.2925
-3.1065 MOMENTS, -0.3003
-3.1065 MORE -0.3003
-2.6294 MUST -0.2993
-3.1065 MY -0.3007
-3.1065 NAGGING -0.3007
-2.8055 NATION -0.2949
-2.6294 NATION, -0.2952
-3.1065 NETWORK -0.2925
-2.8055 NEVER -0.2959
-2.8055 NEW -0.3003
-3.1065 NEXT -0.3000
-3.1065 NO -0.3003
-3.1065 NOBLE -0.3007
-3.1065 NORMANDY -0.2921
-2.6294 NOT -0.2976
-2.8055 NOW -0.2997
-3.1065 OATH -0.2983
-3.1065 OATH. -0.2883
-3.1065 OBAMA -0.3000
-3.1065 OBAMA'S -0.3003
-3.1065 OBSCURE -0.2980
-3.1065 OCEANS -0.2980
-1.7086 OF -0.2711
-3.1065 OFFICE, -0.2990
-2.8055 OFTEN -0.2879
-2.4076 ON -0.2855
-3.1065 ONE -0.2925
-3.1065 ONLY -0.2883
-2.5045 OR -0.2969
-1.8761 OUR -0.2945
-2.6294 OVER -0.3000
-3.1065 PACKED -0.3003
-3.1065 PART -0.2925
-3.1065 PASSED -0.2993
-2.8055 PATH -0.2973
-3.1065 PEACE. -0.3007
-3.1065 PEOPLE -0.2983
-3.1065 PETTY -0.3007
-2.8055 PICTURES -0.2925
-3.1065 PLACES -0.3007
-3.1065 PLANET. -0.2959
-3.1065 PLEASURES -0.2925
-3.1065 PLOWED -0.2883
-3.1065 POLITICS. -0.2959
-3.1065 POSSESSIONS -0.2921
-3.1065 PRECIOUS -0.3007
-3.1065 PREFER -0.3007
-3.1065 PREPARE -0.2883
-3.1065 PRESIDENT -0.3007
-3.1065 PRESIDENTIAL -0.3007
-3.1065 PROCLAIM -0.3007
-3.1065 PROFOUND -0.2983
-3.1065 PROMISE -0.2976
-3.1065 PROMISES, -0.2883
-2.8055 PROSPERITY -0.2921
-3.1065 PURPOSE -0.3000
-3.1065 PURSUE -0.3000
-3.1065 RAGING -0.3007
-3.1065 RATHER, -0.2993
-3.1065 REAFFIRM -0.2952
-3.1065 REAFFIRMING -0.2883
-3.1065 REAL. -0.2986
-3.1065 RECRIMINATIONS -0.2921
-3.1065 REMAIN -0.2976
-3.1065 REMAINED -0.3007
-3.1065 RICHES -0.2921
-3.1065 RISING -0.3007
-3.1065 RISK -0.3007
-3.1065 RUGGED -0.3003
-3.1065 SACRIFICES -0.3007
-3.1065 SANH. -0.2959
-3.1065 SAPPING -0.2925
-3.1065 SASHA -0.2921
-3.1065 SAY -0.2962
-3.1065 SCHOOLS -0.3007
-3.1065 SCRIPTURE, -0.2883
-3.1065 SEARCH -0.2925
-2.8055 SEE -0.3003
-3.1065 SEEK -0.3007
-3.1065 SERIOUS -0.2921
-3.1065 SERVICE -0.2962
-3.1065 SET -0.3007
-3.1065 SETTLED -0.2883
-3.1065 SETTLING -0.2976
-3.1065 SHED; -0.3007
-3.1065 SHORT -0.3007
-3.1065 SHORT-CUTS -0.2997
-3.1065 SHOWN -0.3007
-3.1065 SHUTTERED. -0.2952
-3.1065 SIGHTS. -0.2959
-3.1065 SIMPLY -0.3000
-3.1065 SKILL -0.2997
-2.6294 SO -0.2986
-3.1065 SOME -0.3007
-3.1065 SOME, -0.2990
-3.1065 SPAN -0.2925
-3.1065 SPIRIT; -0.2962
-3.1065 SPOKEN -0.3007
-3.1065 STAND -0.3007
-3.1065 STATISTICS. -0.3003
-3.1065 STILL -0.3007
-3.1065 STORMS. -0.3000
-3.1065 STRANGLED -0.2952
-3.1065 STRENGTHEN -0.2952
-3.1065 SUBJECT -0.2962
-3.1065 SWEATSHOPS -0.2921
-2.8055 TAKEN -0.2879
-3.1065 TAKERS, -0.2883
-3.1065 TASK -0.3007
-3.1065 THANK -0.3007
-2.1065 THAT -0.2787
-1.5383 THE -0.2865
-2.6294 THEIR -0.3000
-2.8055 THESE -0.2983
-2.2614 THEY -0.2969
-3.1065 THINGS -0.2997
-3.1065 THINGS. -0.2883
-2.5045 THIS -0.2990
-3.1065 THIS, -0.3003
-2.8055 THOSE -0.2973
-3.1065 THREATEN -0.2952
-3.1065 THROUGHOUT -0.2997
-3.1065 TIDES -0.2925
-2.8055 TIME -0.2983
-3.1065 TIME. -0.2990
-1.9604 TO -0.2784
-2.8055 TODAY -0.2997
-3.1065 TOILED -0.2980
-2.6294 TOO -0.3000
-3.1065 TOWARDS -0.3003
-3.1065 TRANSITION. -0.2959
-3.1065 TRAVELED -0.3003
-3.1065 TRUE -0.2962
-3.1065 TRUST -0.3003
-3.1065 UNDERSTAND -0.2976
-3.1065 UNDERSTOOD. -0.2952
-3.1065 UNITY -0.2925
-2.8055 UP -0.2872
-3.1065 US -0.3003
-2.5045 US, -0.2983
-3.1065 USE -0.3007
-3.1065 VIOLENCE -0.2921
-3.1065 VISION -0.2925
-3.1065 WAR, -0.3007
-3.1065 WATERS -0.2925
-3.1065 WAYS -0.2980
-2.1523 WE -0.2801
-3.1065 WEAKENED, -0.2976
-2.8055 WELL -0.3000
-3.1065 WEST; -0.3007
-3.1065 WHIP -0.2921
-2.8055 WHO -0.2980
-2.8055 WILL -0.2986
-3.1065 WITH -0.2997
-3.1065 WOMEN -0.3007
-2.8055 WORDS -0.2897
-3.1065 WORK, -0.2997
-3.1065 WORLDLY -0.3007
-3.1065 WORN-OUT -0.3007
-3.1065 YET, -0.3007
-2.8055 YOU -0.2949
-3.1065 YOUNG -0.3000
-2.5045 — -0.2914

\2-grams:
-1.0000 <s> FOR -0.2304
-1.4771 <s> FORTY-FOUR 0.0000
-1.4771 <s> IN -0.2762
-1.4771 <s> MY 0.0000
-1.1761 <s> ON -0.2041
-1.1761 <s> SEE 0.0000
-1.4771 <s> SO -0.1249
-1.4771 <s> THAT -0.2788
-1.4771 <s> THESE -0.1761
-1.4771 <s> TODAY -0.1761
-1.4771 <s> WE -0.2762
-1.3010 A CHANCE 0.0000
-1.3010 A CONSEQUENCE 0.0000
-1.3010 A FAR-REACHING 0.0000
-1.3010 A GIVEN. 0.0000
-1.3010 A NAGGING 0.0000
-1.0000 A NEW 0.0000
-1.3010 A SAPPING 0.0000
-1.3010 A SHORT 0.0000
-1.3010 A YOUNG 0.0000
-0.6021 ACROSS OCEANS 0.0000
-0.6021 ACROSS OUR -0.2881
-0.3010 ADVERSARIES AND -0.2926
-0.3010 AGAINST A -0.2788
-0.3010 AGE. HOMES 0.0000
-0.4771 ALL ARE -0.2341
-0.7782 ALL DESERVE 0.0000
-0.3010 ALSO OUR -0.2881
-0.6021 AMERICA HAS -0.2730
-0.6021 AMERICA — -0.2430
-0.3010 AMERICA'S DECLINE 0.0000
-0.3010 AMERICANS HAVE -0.2730
-0.3010 AMERICANS. </s> -0.3010
-0.3010 AMIDST GATHERING 0.0000
-0.3010 AN END 0.0000
-0.3010 ANCESTORS. I -0.2218
-1.7160 AND ALL -0.2218
-1.7160 AND COOPERATION 0.0000
-1.7160 AND DIED, 0.0000
-1.7160 AND DISCORD. 0.0000
-1.7160 AND EACH 0.0000
-1.7160 AND FALSE 0.0000
-1.7160 AND FAME. 0.0000
-1.7160 AND FREEDOM. 0.0000
-1.7160 AND GETTYSBURG; 0.0000
-1.7160 AND HATRED. 0.0000
-1.7160 AND IRRESPONSIBILITY 0.0000
-1.7160 AND KHE 0.0000
-1.7160 AND MALIA 0.0000
-1.7160 AND PLOWED 0.0000
-1.7160 AND PREPARE 0.0000
-1.7160 AND RAGING 0.0000
-1.7160 AND SETTLED 0.0000
-1.7160 AND STATISTICS. 0.0000
-1.7160 AND THAT -0.2304
-1.7160 AND THE -0.2951
-1.7160 AND THEY -0.2341
-1.7160 AND THREATEN 0.0000
-1.7160 AND TRAVELED 0.0000
-1.7160 AND TRUE 0.0000
-1.7160 AND WOMEN 0.0000
-1.7160 AND WORN-OUT 0.0000
-1.1461 ARE EQUAL, 0.0000
-1.1461 ARE FREE, 0.0000
-1.1461 ARE IN -0.2499
-1.1461 ARE MANY. 0.0000
-1.1461 ARE REAL. 0.0000
-1.1461 ARE SERIOUS 0.0000
-1.1461 ARE THE -0.2951
-0.6021 AS THE -0.2951
-0.6021 AS WELL -0.1761
-0.3010 ASIDE CHILDISH 0.0000
-0.7782 AT THE -0.2951
-0.7782 AT THESE -0.1761
-0.7782 AT WAR, 0.0000
-0.3010 BADLY WEAKENED, 0.0000
-0.9031 BE EARNED. 0.0000
-0.9031 BE MET 0.0000
-0.9031 BE MET. 0.0000
-0.9031 BE WITH 0.0000
-0.7782 BECAUSE OF -0.2742
-0.4771 BECAUSE WE -0.2499
-1.0000 BEEN LOST; 0.0000
-1.0000 BEEN ONE 0.0000
-1.0000 BEEN SPOKEN 0.0000
-0.6990 BEEN THE -0.2891
-0.3010 BEEN. SO -0.1249
-0.3010 BEFORE US, -0.2430
-0.3010 BESTOWED, MINDFUL 0.0000
-0.3010 BETTER HISTORY; 0.0000
-0.3010 BORNE BY -0.1761
-0.3010 BRINGS FURTHER 0.0000
-0.3010 BUSH FOR -0.2788
-0.3010 BUSINESSES SHUTTERED. 0.0000
-1.0792 BUT ALSO 0.0000
-1.0792 BUT BECAUSE -0.1249
-1.0792 BUT IN -0.2499
-1.0792 BUT KNOW 0.0000
-1.0792 BUT MORE 0.0000
-1.0792 BUT NO 0.0000
-0.6021 BY OUR -0.2881
-0.6021 BY THE -0.2951
-0.3010 CARE IS -0.2730
-0.6021 CARRIED ON -0.2553
-0.6021 CARRIED US 0.0000
-0.3010 CARRY FORWARD 0.0000
-0.3010 CELEBRATED BUT -0.2632
-0.3010 CHALLENGES WE -0.2762
-0.3010 CHANCE TO -0.2852
-0.3010 CHILDISH THINGS. 0.0000
-0.3010 CHOICES AND -0.2926
-0.3010 CHOOSE OUR -0.2881
-0.3010 CHOSEN HOPE 0.0000
-0.3010 CITIZENS: I -0.2218
-0.3010 CLOUDS AND -0.2926
-0.3010 COLLECTIVE FAILURE 0.0000
-0.3010 COME TO -0.2518
-0.3010 CONCORD AND -0.2926
-0.3010 CONFIDENCE ACROSS -0.1761
-0.3010 CONFLICT AND -0.2926
-0.3010 CONSEQUENCE OF -0.2923
-0.3010 COOPERATION HE 0.0000
-0.3010 COSTLY; OUR -0.2881
-0.3010 CRISIS IS -0.2730
-0.3010 CRISIS, SUBJECT 0.0000
-0.3010 DATA AND -0.2926
-0.3010 DAY BRINGS 0.0000
-0.3010 DAY, WE -0.2499
-0.3010 DECLINE IS -0.2730
-0.3010 DESERVE A -0.2788
-0.3010 DIED, IN -0.2762
-0.3010 DISCORD. </s> -0.3010
-0.3010 DOCUMENTS. </s> -0.3010
-0.3010 DOERS, THE -0.2951
-0.3010 DOGMAS, THAT -0.2788
-0.3010 DURING RISING 0.0000
-0.3010 EACH DAY 0.0000
-0.3010 EARNED. OUR -0.2881
-0.3010 EARTH. </s> -0.3010
-0.3010 EASILY OR -0.2430
-0.3010 ECONOMY IS -0.2730
-0.3010 END TO -0.2688
-0.3010 ENDURED THE -0.2951
-0.3010 ENDURING SPIRIT; 0.0000
-0.3010 ENERGY STRENGTHEN 0.0000
-0.3010 EQUAL, ALL -0.1249
-0.3010 EVERY SO -0.2218
-0.3010 EVIDENCE THAT -0.2304
-0.3010 FACE ARE -0.2688
-0.3010 FAIL TOO -0.2218
-0.3010 FAILURE TO -0.2852
-0.3010 FAINT-HEARTED — -0.2430
-0.3010 FAITHFUL TO -0.2688
-0.3010 FALSE PROMISES, 0.0000
-0.3010 FAME. RATHER, 0.0000
-0.3010 FAR TOO -0.2218
-0.3010 FAR-REACHING NETWORK 0.0000
-0.3010 FEAR THAT -0.2788
-0.3010 FEAR, UNITY 0.0000
-0.3010 FELLOW CITIZENS: 0.0000
-0.3010 FEW WORLDLY 0.0000
-1.3010 FOR A -0.2553
-1.3010 FOR FAR 0.0000
-1.3010 FOR HIS 0.0000
-1.3010 FOR LESS. 0.0000
-1.0000 FOR THE -0.2891
-1.3010 FOR THOSE -0.1761
-0.8239 FOR US, -0.0969
-0.3010 FORBEARERS, AND -0.2926
-0.3010 FORTY-FOUR AMERICANS 0.0000
-0.3010 FORWARD THAT -0.2788
-0.3010 FOUGHT AND -0.2926
-0.3010 FOUNDING DOCUMENTS. 0.0000
-0.3010 FREE, AND -0.2926
-0.3010 FREEDOM. </s> -0.3010
-0.3010 FROM GENERATION -0.2218
-0.3010 FULL MEASURE 0.0000
-0.3010 FURTHER EVIDENCE 0.0000
-0.3010 GATHER BECAUSE -0.1249
-0.3010 GATHERING CLOUDS 0.0000
-0.7782 GENERATION MUST -0.2218
-0.7782 GENERATION OF -0.2923
-0.7782 GENERATION TO -0.2852
-0.3010 GENERATION: THE -0.2951
-0.3010 GENEROSITY AND -0.2926
-0.3010 GETTYSBURG; NORMANDY 0.0000
-0.3010 GIFT, THAT -0.2788
-0.3010 GIVEN. IT -0.2041
-0.3010 GOD-GIVEN PROMISE 0.0000
-0.3010 GRATEFUL FOR -0.2553
-0.6021 GREATNESS IS -0.2730
-0.6021 GREATNESS OF -0.2833
-0.3010 GREED AND -0.2926
-0.3010 GRIEVANCES AND -0.2926
-0.3010 HAPPINESS. </s> -0.3010
-0.6021 HARD CHOICES 0.0000
-0.6021 HARD EARTH. 0.0000
-1.2041 HAS BEEN -0.2041
-1.2041 HAS BEEN. 0.0000
-1.2041 HAS CARRIED -0.1761
-0.9031 HAS COME 0.0000
-1.2041 HAS NEVER -0.1761
-1.2041 HAS NOT -0.2218
-1.2041 HAS SHOWN 0.0000
-0.3010 HATRED. OUR -0.2881
-0.9031 HAVE BEEN -0.2041
-1.2041 HAVE BESTOWED, 0.0000
-1.2041 HAVE CARRIED -0.1761
-1.2041 HAVE CHOSEN 0.0000
-1.2041 HAVE NOW -0.1761
-1.2041 HAVE REMAINED 0.0000
-1.2041 HAVE STRANGLED 0.0000
-0.3010 HE HAS -0.2730
-0.3010 HEALTH CARE 0.0000
-0.3010 HERE TODAY -0.1761
-0.3010 HIGH OFFICE, 0.0000
-0.3010 HIS SERVICE 0.0000
-0.3010 HISTORY; TO -0.2852
-0.3010 HOMES HAVE -0.2430
-0.3010 HOPE OVER -0.2218
-0.3010 HUMBLED BY -0.1761
-0.7782 I SAY 0.0000
-0.7782 I STAND 0.0000
-0.7782 I THANK 0.0000
-0.3010 IDEA, PASSED 0.0000
-0.3010 IDEALS OF -0.2833
-1.2553 IN A -0.2788
-1.2553 IN HIGH 0.0000
-1.2553 IN PLACES 0.0000
-1.2553 IN REAFFIRMING 0.0000
-1.2553 IN SEARCH 0.0000
-1.2553 IN SWEATSHOPS 0.0000
-0.9542 IN THE -0.2831
-1.2553 IN THEIR -0.2218
-0.3010 INAUGURATION. </s> -0.3010
-0.3010 INDICATORS OF -0.2923
-0.3010 INEVITABLE, AND -0.2926
-0.3010 IRRESPONSIBILITY ON -0.2553
-1.2041 IS A -0.2788
-1.2041 IS AT -0.2218
-1.2041 IS BADLY 0.0000
-1.2041 IS INEVITABLE, 0.0000
-1.2041 IS NEVER -0.1761
-1.2041 IS NOW -0.1761
-1.2041 IS TAKEN -0.1761
-1.2041 IS TOO -0.2218
-0.5229 IT HAS -0.2109
-0.6990 IT MUST -0.1249
-0.3010 ITS SIGHTS. 0.0000
-0.3010 JOBS SHED; 0.0000
-0.3010 JOURNEY HAS -0.2730
-0.3010 KHE SANH. 0.0000
-0.3010 KNOW THIS, 0.0000
-0.3010 LABOR, WHO -0.1761
-0.3010 LAND — -0.2430
-0.3010 LASH OF -0.2742
-0.3010 LEISURE OVER -0.2218
-0.6021 LESS MEASURABLE 0.0000
-0.6021 LESS PROFOUND 0.0000
-0.3010 LESS. IT -0.1461
-0.3010 LIFE. </s> -0.3010
-0.3010 LIKE CONCORD 0.0000
-0.3010 LONG HAVE -0.2730
-0.3010 LONG, RUGGED 0.0000
-0.3010 LOST; JOBS 0.0000
-0.3010 LOWER ITS 0.0000
-0.3010 MAKE HARD -0.1761
-0.3010 MAKERS OF -0.2923
-0.3010 MALIA OBAMA 0.0000
-0.3010 MANY. THEY -0.2341
-0.3010 MANY; AND -0.2926
-0.3010 MEASURABLE BUT -0.2632
-0.3010 MEASURE OF -0.2923
-0.3010 MEN AND -0.2926
-0.3010 MET EASILY 0.0000
-0.3010 MET. </s> -0.3010
-0.3010 MIDST OF -0.2923
-0.3010 MINDFUL OF -0.2742
-0.3010 MOMENTS, AMERICA -0.1761
-0.3010 MORE OFTEN -0.1761
-0.4771 MUST BE -0.1761
-0.7782 MUST LOWER 0.0000
-0.3010 MY FELLOW 0.0000
-0.3010 NAGGING FEAR 0.0000
-0.6021 NATION FOR -0.2788
-0.6021 NATION IS -0.2730
-0.7782 NATION, AS -0.1761
-0.7782 NATION, BUT -0.2632
-0.7782 NATION, WE -0.2762
-0.3010 NETWORK OF -0.2923
-0.6021 NEVER A -0.2788
-0.6021 NEVER BEEN -0.2553
-0.6021 NEW AGE. 0.0000
-0.6021 NEW LIFE. 0.0000
-0.3010 NEXT GENERATION -0.2218
-0.3010 NO LESS -0.1761
-0.3010 NOBLE IDEA, 0.0000
-0.3010 NORMANDY AND -0.2926
-0.7782 NOT BE -0.2430
-0.7782 NOT BEEN -0.2041
-0.7782 NOT SIMPLY 0.0000
-0.6021 NOW TAKEN -0.1761
-0.6021 NOW WELL -0.1761
-0.3010 OATH IS -0.2730
-0.3010 OATH. THE -0.2891
-0.3010 OBAMA AT -0.2218
-0.3010 OBAMA'S INAUGURATION. 0.0000
-0.3010 OBSCURE IN -0.2762
-0.3010 OCEANS IN -0.2762
-1.6990 OF A -0.2553
-1.6990 OF AMERICANS. 0.0000
-1.6990 OF CONFIDENCE 0.0000
-1.6990 OF CRISIS 0.0000
-1.6990 OF CRISIS, 0.0000
-1.6990 OF GREED 0.0000
-1.6990 OF HAPPINESS. 0.0000
-1.6990 OF OBAMA'S 0.0000
-1.3979 OF OUR -0.2609
-1.6990 OF PEACE. 0.0000
-1.6990 OF PROSPERITY 0.0000
-1.6990 OF PURPOSE 0.0000
-1.6990 OF RICHES 0.0000
-1.6990 OF SASHA 0.0000
-1.6990 OF SCRIPTURE, 0.0000
-1.6990 OF SHORT-CUTS 0.0000
-1.6990 OF SOME, 0.0000
-1.2218 OF THE -0.2831
-1.6990 OF THINGS 0.0000
-1.6990 OF THOSE -0.1761
-1.6990 OF TIME. 0.0000
-1.6990 OF VIOLENCE 0.0000
-0.3010 OFFICE, BUT -0.2632
-0.6021 OFTEN MEN 0.0000
-0.6021 OFTEN THE -0.2951
-1.0000 ON FROM 0.0000
-1.0000 ON NOT -0.2218
-1.0000 ON THE -0.2951
-0.6990 ON THIS -0.1761
-0.3010 ONE OF -0.2923
-0.3010 ONLY THE -0.2951
-0.9031 OR IN -0.2762
-0.9031 OR SEEK 0.0000
-0.9031 OR SETTLING 0.0000
-0.9031 OR VISION 0.0000
-1.5315 OUR ADVERSARIES 0.0000
-1.5315 OUR ANCESTORS. 0.0000
-1.5315 OUR BETTER 0.0000
-1.5315 OUR COLLECTIVE 0.0000
-1.5315 OUR ECONOMY 0.0000
-1.5315 OUR ENDURING 0.0000
-1.5315 OUR FORBEARERS, 0.0000
-1.5315 OUR FOUNDING 0.0000
-1.5315 OUR HEALTH 0.0000
-1.5315 OUR JOURNEY 0.0000
-1.5315 OUR LAND 0.0000
-1.5315 OUR NATION -0.1761
-1.2304 OUR NATION, -0.1249
-1.5315 OUR PLANET. 0.0000
-1.5315 OUR POLITICS. 0.0000
-1.5315 OUR SCHOOLS 0.0000
-0.7782 OVER CONFLICT 0.0000
-0.7782 OVER FEAR, 0.0000
-0.7782 OVER WORK, 0.0000
-0.3010 PACKED UP -0.1761
-0.3010 PART OF -0.2923
-0.3010 PASSED ON -0.2553
-0.6021 PATH FOR -0.2553
-0.6021 PATH TOWARDS 0.0000
-0.3010 PEACE. YET, 0.0000
-0.3010 PEOPLE HAVE -0.2730
-0.3010 PETTY GRIEVANCES 0.0000
-0.3010 PICTURES OF -0.2833
-0.3010 PLACES LIKE 0.0000
-0.3010 PLANET. </s> -0.3010
-0.3010 PLEASURES OF -0.2923
-0.3010 PLOWED THE -0.2951
-0.3010 POLITICS. </s> -0.3010
-0.3010 POSSESSIONS AND -0.2926
-0.3010 PRECIOUS GIFT, 0.0000
-0.3010 PREFER LEISURE 0.0000
-0.3010 PREPARE THE -0.2951
-0.3010 PRESIDENT BUSH 0.0000
-0.3010 PRESIDENTIAL OATH. 0.0000
-0.3010 PROCLAIM AN 0.0000
-0.3010 PROFOUND IS -0.2730
-0.3010 PROMISE THAT -0.2788
-0.3010 PROMISES, THE -0.2951
-0.3010 PROSPERITY AND -0.2840
-0.3010 PURPOSE OVER -0.2218
-0.3010 PURSUE THEIR -0.2218
-0.3010 RAGING STORMS. 0.0000
-0.3010 RATHER, IT -0.1461
-0.3010 REAFFIRM OUR -0.2881
-0.3010 REAFFIRMING THE -0.2951
-0.3010 REAL. THEY -0.2341
-0.3010 RECRIMINATIONS AND -0.2926
-0.3010 REMAIN A -0.2788
-0.3010 REMAINED FAITHFUL 0.0000
-0.3010 RICHES AND -0.2926
-0.3010 RISING TIDES 0.0000
-0.3010 RISK TAKERS, 0.0000
-0.3010 RUGGED PATH -0.1761
-0.3010 SACRIFICES BORNE 0.0000
-0.3010 SANH. </s> -0.3010
-0.3010 SAPPING OF -0.2923
-0.3010 SASHA AND -0.2926
-0.3010 SAY TO -0.2852
-0.3010 SCHOOLS FAIL 0.0000
-0.3010 SCRIPTURE, THE -0.2891
-0.3010 SEARCH OF -0.2923
-0.3010 SEE PICTURES 0.0000
-0.3010 SEEK ONLY 0.0000
-0.3010 SERIOUS AND -0.2926
-0.3010 SERVICE TO -0.2688
-0.3010 SET ASIDE 0.0000
-0.3010 SETTLED THE -0.2951
-0.3010 SETTLING FOR -0.2788
-0.3010 SHED; BUSINESSES 0.0000
-0.3010 SHORT SPAN 0.0000
-0.3010 SHORT-CUTS OR -0.2430
-0.3010 SHOWN THROUGHOUT 0.0000
-0.3010 SHUTTERED. OUR -0.2881
-0.3010 SIGHTS. </s> -0.3010
-0.3010 SIMPLY BECAUSE -0.2218
-0.3010 SKILL OR -0.2430
-0.4771 SO IT 0.0000
-0.7782 SO OFTEN -0.1761
-0.3010 SOME CELEBRATED 0.0000
-0.3010 SOME, BUT -0.2632
-0.3010 SPAN OF -0.2923
-0.3010 SPIRIT; TO -0.2852
-0.3010 SPOKEN DURING 0.0000
-0.3010 STAND HERE 0.0000
-0.3010 STATISTICS. LESS -0.1761
-0.3010 STILL WATERS 0.0000
-0.3010 STORMS. AT -0.2218
-0.3010 STRANGLED OUR -0.2881
-0.3010 STRENGTHEN OUR -0.2881
-0.3010 SUBJECT TO -0.2852
-0.3010 SWEATSHOPS AND -0.2926
-0.6021 TAKEN AMIDST 0.0000
-0.6021 TAKEN THE -0.2951
-0.3010 TAKERS, THE -0.2951
-0.3010 TASK BEFORE 0.0000
-0.3010 THANK PRESIDENT 0.0000
-1.3010 THAT ALL -0.1249
-1.3010 THAT AMERICA'S 0.0000
-1.3010 THAT FOR -0.2788
-1.3010 THAT GREATNESS -0.1761
-1.3010 THAT NOBLE 0.0000
-1.3010 THAT PRECIOUS 0.0000
-0.8239 THAT THE -0.2831
-1.3010 THAT WE -0.2762
-1.8692 THE CHALLENGES 0.0000
-1.8692 THE DOERS, 0.0000
-1.8692 THE FAINT-HEARTED 0.0000
-1.8692 THE GENEROSITY 0.0000
-1.8692 THE GOD-GIVEN 0.0000
-1.8692 THE GREATNESS -0.1761
-1.8692 THE HARD -0.1761
-1.8692 THE IDEALS 0.0000
-1.8692 THE INAUGURATION. 0.0000
-1.8692 THE INDICATORS 0.0000
-1.8692 THE LASH 0.0000
-1.8692 THE LONG, 0.0000
-1.8692 THE MAKERS 0.0000
-1.8692 THE MIDST 0.0000
-1.8692 THE NATION -0.1761
-1.8692 THE NEXT 0.0000
-1.8692 THE OATH 0.0000
-1.8692 THE PART 0.0000
-1.8692 THE PATH -0.1761
-1.8692 THE PEOPLE 0.0000
-1.8692 THE PETTY 0.0000
-1.8692 THE PLEASURES 0.0000
-1.8692 THE PRESIDENTIAL 0.0000
-1.8692 THE RECRIMINATIONS 0.0000
-1.8692 THE RISK 0.0000
-1.8692 THE SACRIFICES 0.0000
-1.8692 THE SKILL 0.0000
-1.8692 THE STILL 0.0000
-1.8692 THE TASK 0.0000
-1.5682 THE TIME 0.0000
-1.8692 THE TRUST 0.0000
-1.8692 THE WAYS 0.0000
-1.8692 THE WEST; 0.0000
-1.8692 THE WHIP 0.0000
-1.5682 THE WORDS 0.0000
-0.7782 THEIR FEW 0.0000
-0.7782 THEIR FULL 0.0000
-0.7782 THEIR LABOR, 0.0000
-0.6021 THESE ARE -0.2688
-0.6021 THESE MOMENTS, 0.0000
-0.8451 THEY ARE -0.2341
-1.1461 THEY FOUGHT 0.0000
-1.1461 THEY PACKED 0.0000
-1.1461 THEY TOILED 0.0000
-0.8451 THEY WILL 0.0000
-0.3010 THINGS — -0.2430
-0.3010 THINGS. THE -0.2891
-0.6021 THIS DAY, 0.0000
-0.9031 THIS GENERATION -0.2218
-0.9031 THIS TRANSITION. 0.0000
-0.3010 THIS, AMERICA -0.1761
-0.6021 THOSE IN -0.2762
-0.6021 THOSE WHO -0.1761
-0.3010 THREATEN OUR -0.2881
-0.3010 THROUGHOUT THIS -0.2430
-0.3010 TIDES OF -0.2923
-0.3010 TIME HAS -0.2430
-0.3010 TIME. BUT -0.2632
-1.4472 TO CARRY 0.0000
-1.4472 TO CHOOSE 0.0000
-1.4472 TO DATA 0.0000
-1.4472 TO GENERATION: 0.0000
-1.4472 TO MAKE 0.0000
-1.1461 TO OUR -0.2609
-1.4472 TO PROCLAIM 0.0000
-1.4472 TO PURSUE 0.0000
-1.4472 TO REAFFIRM 0.0000
-1.4472 TO SET 0.0000
-1.1461 TO THE -0.2891
-1.4472 TO YOU -0.1761
-0.6021 TODAY HUMBLED 0.0000
-0.6021 TODAY I -0.2218
-0.3010 TOILED IN -0.2762
-0.7782 TOO COSTLY; 0.0000
-0.7782 TOO LONG 0.0000
-0.7782 TOO MANY; 0.0000
-0.3010 TOWARDS PROSPERITY 0.0000
-0.3010 TRANSITION. </s> -0.3010
-0.3010 TRAVELED ACROSS -0.1761
-0.3010 TRUE TO -0.2688
-0.3010 TRUST YOU -0.1761
-0.3010 UNDERSTAND THAT -0.2788
-0.3010 UNDERSTOOD. OUR -0.2881
-0.3010 UNITY OF -0.2923
-0.6021 UP THE -0.2951
-0.6021 UP THEIR -0.2218
-0.3010 US UP -0.1761
-0.9031 US, GRATEFUL 0.0000
-0.4260 US, THEY -0.1963
-0.3010 USE ENERGY 0.0000
-0.3010 VIOLENCE AND -0.2926
-0.3010 VISION OF -0.2923
-0.3010 WAR, AGAINST 0.0000
-0.3010 WATERS OF -0.2923
-0.3010 WAYS WE -0.2762
-1.2553 WE ARE -0.2688
-1.2553 WE COME 0.0000
-1.2553 WE FACE 0.0000
-1.2553 WE GATHER 0.0000
-1.2553 WE HAVE -0.2730
-1.2553 WE REMAIN 0.0000
-1.2553 WE THE -0.2951
-1.2553 WE UNDERSTAND 0.0000
-1.2553 WE USE 0.0000
-0.3010 WEAKENED, A -0.2788
-0.6021 WELL AS -0.1761
-0.6021 WELL UNDERSTOOD. 0.0000
-0.3010 WEST; ENDURED 0.0000
-0.3010 WHIP AND -0.2926
-0.6021 WHO HAVE -0.2730
-0.6021 WHO PREFER 0.0000
-0.6021 WILL BE -0.2430
-0.6021 WILL NOT -0.2218
-0.3010 WITH THIS -0.2430
-0.3010 WOMEN OBSCURE 0.0000
-0.6021 WORDS HAVE -0.2430
-0.6021 WORDS OF -0.2923
-0.3010 WORK, OR -0.2430
-0.3010 WORLDLY POSSESSIONS 0.0000
-0.3010 WORN-OUT DOGMAS, 0.0000
-0.3010 YET, EVERY 0.0000
-0.6021 YOU HAVE -0.2730
-0.6021 YOU THAT -0.2304
-0.3010 YOUNG NATION, -0.2218
-0.9031 — A -0.2788
-0.9031 — FOR -0.2788
-0.9031 — SOME 0.0000
-0.9031 — THEY -0.2341

\3-grams:
-0.3010 <s> FOR US,
-0.3010 <s> FORTY-FOUR AMERICANS
-0.3010 <s> IN REAFFIRMING
-0.3010 <s> MY FELLOW
-0.3010 <s> ON THIS
-0.3010 <s> SEE PICTURES
-0.3010 <s> SO IT
-0.3010 <s> THAT WE
-0.3010 <s> THESE ARE
-0.3010 <s> TODAY I
-0.3010 <s> WE REMAIN
-0.3010 A CHANCE TO
-0.3010 A CONSEQUENCE OF
-0.3010 A FAR-REACHING NETWORK
-0.3010 A GIVEN. IT
-0.3010 A NAGGING FEAR
-0.6021 A NEW AGE.
-0.6021 A NEW LIFE.
-0.3010 A SAPPING OF
-0.3010 A SHORT SPAN
-0.3010 A YOUNG NATION,
-0.3010 ACROSS OCEANS IN
-0.3010 ACROSS OUR LAND
-0.3010 ADVERSARIES AND THREATEN
-0.3010 AGAINST A FAR-REACHING
-0.3010 AGE. HOMES HAVE
-0.6021 ALL ARE EQUAL,
-0.6021 ALL ARE FREE,
-0.3010 ALL DESERVE A
-0.3010 ALSO OUR COLLECTIVE
-0.3010 AMERICA HAS CARRIED
-0.3010 AMERICA — THEY
-0.3010 AMERICA'S DECLINE IS
-0.3010 AMERICANS HAVE NOW
-0.3010 AMIDST GATHERING CLOUDS
-0.3010 AN END TO
-0.3010 ANCESTORS. I THANK
-0.3010 AND ALL DESERVE
-0.3010 AND COOPERATION HE
-0.3010 AND DIED, IN
-0.3010 AND DISCORD. </s>
-0.3010 AND EACH DAY
-0.3010 AND FALSE PROMISES,
-0.3010 AND FAME. RATHER,
-0.3010 AND FREEDOM. </s>
-0.3010 AND GETTYSBURG; NORMANDY
-0.3010 AND HATRED. OUR
-0.3010 AND IRRESPONSIBILITY ON
-0.3010 AND KHE SANH.
-0.3010 AND MALIA OBAMA
-0.3010 AND PLOWED THE
-0.3010 AND PREPARE THE
-0.3010 AND RAGING STORMS.
-0.3010 AND SETTLED THE
-0.3010 AND STATISTICS. LESS
-0.3010 AND THAT THE
-0.3010 AND THE STILL
-0.3010 AND THEY ARE
-0.3010 AND THREATEN OUR
-0.3010 AND TRAVELED ACROSS
-0.3010 AND TRUE TO
-0.3010 AND WOMEN OBSCURE
-0.3010 AND WORN-OUT DOGMAS,
-0.3010 ARE EQUAL, ALL
-0.3010 ARE FREE, AND
-0.3010 ARE IN THE
-0.3010 ARE MANY. THEY
-0.3010 ARE REAL. THEY
-0.3010 ARE SERIOUS AND
-0.3010 ARE THE INDICATORS
-0.3010 AS THE GENEROSITY
-0.3010 AS WELL AS
-0.3010 ASIDE CHILDISH THINGS.
-0.3010 AT THE INAUGURATION.
-0.3010 AT THESE MOMENTS,
-0.3010 AT WAR, AGAINST
-0.3010 BADLY WEAKENED, A
-0.3010 BE EARNED. OUR
-0.3010 BE MET EASILY
-0.3010 BE MET. </s>
-0.3010 BE WITH THIS
-0.3010 BECAUSE OF THE
-0.6021 BECAUSE WE HAVE
-0.6021 BECAUSE WE THE
-0.3010 BEEN LOST; JOBS
-0.3010 BEEN ONE OF
-0.3010 BEEN SPOKEN DURING
-0.6021 BEEN THE PATH
-0.6021 BEEN THE RISK
-0.3010 BEEN. SO IT
-0.3010 BEFORE US, GRATEFUL
-0.3010 BESTOWED, MINDFUL OF
-0.3010 BETTER HISTORY; TO
-0.3010 BORNE BY OUR
-0.3010 BRINGS FURTHER EVIDENCE
-0.3010 BUSH FOR HIS
-0.3010 BUSINESSES SHUTTERED. OUR
-0.3010 BUT ALSO OUR
-0.3010 BUT BECAUSE WE
-0.3010 BUT IN THE
-0.3010 BUT KNOW THIS,
-0.3010 BUT MORE OFTEN
-0.3010 BUT NO LESS
-0.3010 BY OUR ANCESTORS.
-0.3010 BY THE TASK
-0.3010 CARE IS TOO
-0.3010 CARRIED ON NOT
-0.3010 CARRIED US UP
-0.3010 CARRY FORWARD THAT
-0.3010 CELEBRATED BUT MORE
-0.3010 CHALLENGES WE FACE
-0.3010 CHANCE TO PURSUE
-0.3010 CHILDISH THINGS. THE
-0.3010 CHOICES AND PREPARE
-0.3010 CHOOSE OUR BETTER
-0.3010 CHOSEN HOPE OVER
-0.3010 CITIZENS: I STAND
-0.3010 CLOUDS AND RAGING
-0.3010 COLLECTIVE FAILURE TO
-0.7782 COME TO PROCLAIM
-0.7782 COME TO REAFFIRM
-0.7782 COME TO SET
-0.3010 CONCORD AND GETTYSBURG;
-0.3010 CONFIDENCE ACROSS OUR
-0.3010 CONFLICT AND DISCORD.
-0.3010 CONSEQUENCE OF GREED
-0.3010 COOPERATION HE HAS
-0.3010 COSTLY; OUR SCHOOLS
-0.3010 CRISIS IS NOW
-0.3010 CRISIS, SUBJECT TO
-0.3010 DATA AND STATISTICS.
-0.3010 DAY BRINGS FURTHER
-0.6021 DAY, WE COME
-0.6021 DAY, WE GATHER
-0.3010 DECLINE IS INEVITABLE,
-0.3010 DESERVE A CHANCE
-0.3010 DIED, IN PLACES
-0.3010 DOERS, THE MAKERS
-0.3010 DOGMAS, THAT FOR
-0.3010 DURING RISING TIDES
-0.3010 EACH DAY BRINGS
-0.3010 EARNED. OUR JOURNEY
-0.3010 EASILY OR IN
-0.3010 ECONOMY IS BADLY
-0.3010 END TO THE
-0.3010 ENDURED THE LASH
-0.3010 ENDURING SPIRIT; TO
-0.3010 ENERGY STRENGTHEN OUR
-0.3010 EQUAL, ALL ARE
-0.3010 EVERY SO OFTEN
-0.3010 EVIDENCE THAT THE
-0.3010 FACE ARE REAL.
-0.3010 FAIL TOO MANY;
-0.3010 FAILURE TO MAKE
-0.3010 FAINT-HEARTED — FOR
-0.3010 FAITHFUL TO THE
-0.3010 FALSE PROMISES, THE
-0.3010 FAME. RATHER, IT
-0.3010 FAR TOO LONG
-0.3010 FAR-REACHING NETWORK OF
-0.3010 FEAR THAT AMERICA'S
-0.3010 FEAR, UNITY OF
-0.3010 FELLOW CITIZENS: I
-0.3010 FEW WORLDLY POSSESSIONS
-0.3010 FOR A NEW
-0.3010 FOR FAR TOO
-0.3010 FOR HIS SERVICE
-0.3010 FOR LESS. IT
-0.6021 FOR THE FAINT-HEARTED
-0.6021 FOR THE TRUST
-0.3010 FOR THOSE WHO
-0.3010 FOR US, THEY
-0.3010 FORBEARERS, AND TRUE
-0.3010 FORTY-FOUR AMERICANS HAVE
-0.3010 FORWARD THAT PRECIOUS
-0.3010 FOUGHT AND DIED,
-0.3010 FOUNDING DOCUMENTS. </s>
-0.3010 FREE, AND ALL
-0.3010 FROM GENERATION TO
-0.3010 FULL MEASURE OF
-0.3010 FURTHER EVIDENCE THAT
-0.3010 GATHER BECAUSE WE
-0.3010 GATHERING CLOUDS AND
-0.3010 GENERATION MUST LOWER
-0.3010 GENERATION OF AMERICANS.
-0.3010 GENERATION TO GENERATION:
-0.3010 GENERATION: THE GOD-GIVEN
-0.3010 GENEROSITY AND COOPERATION
-0.3010 GETTYSBURG; NORMANDY AND
-0.3010 GIFT, THAT NOBLE
-0.3010 GIVEN. IT MUST
-0.3010 GOD-GIVEN PROMISE THAT
-0.3010 GRATEFUL FOR THE
-0.3010 GREATNESS IS NEVER
-0.3010 GREATNESS OF OUR
-0.3010 GREED AND IRRESPONSIBILITY
-0.3010 GRIEVANCES AND FALSE
-0.3010 HARD CHOICES AND
-0.3010 HARD EARTH. </s>
-0.3010 HAS BEEN THE
-0.3010 HAS BEEN. SO
-0.3010 HAS CARRIED ON
-0.3010 HAS COME TO
-0.3010 HAS NEVER BEEN
-0.3010 HAS NOT BEEN
-0.3010 HAS SHOWN THROUGHOUT
-0.3010 HATRED. OUR ECONOMY
-0.6021 HAVE BEEN LOST;
-0.6021 HAVE BEEN SPOKEN
-0.3010 HAVE BESTOWED, MINDFUL
-0.3010 HAVE CARRIED US
-0.3010 HAVE CHOSEN HOPE
-0.3010 HAVE NOW TAKEN
-0.3010 HAVE REMAINED FAITHFUL
-0.3010 HAVE STRANGLED OUR
-0.3010 HE HAS SHOWN
-0.3010 HEALTH CARE IS
-0.3010 HERE TODAY HUMBLED
-0.3010 HIGH OFFICE, BUT
-0.3010 HIS SERVICE TO
-0.3010 HISTORY; TO CARRY
-0.3010 HOMES HAVE BEEN
-0.3010 HOPE OVER FEAR,
-0.3010 HUMBLED BY THE
-0.3010 I SAY TO
-0.3010 I STAND HERE
-0.3010 I THANK PRESIDENT
-0.3010 IDEA, PASSED ON
-0.3010 IDEALS OF OUR
-0.3010 IN A SHORT
-0.3010 IN HIGH OFFICE,
-0.3010 IN PLACES LIKE
-0.3010 IN REAFFIRMING THE
-0.3010 IN SEARCH OF
-0.3010 IN SWEATSHOPS AND
-0.6021 IN THE MIDST
-0.6021 IN THE WORDS
-0.3010 IN THEIR LABOR,
-0.3010 INDICATORS OF CRISIS,
-0.3010 INEVITABLE, AND THAT
-0.3010 IRRESPONSIBILITY ON THE
-0.3010 IS A SAPPING
-0.3010 IS AT WAR,
-0.3010 IS BADLY WEAKENED,
-0.3010 IS INEVITABLE, AND
-0.3010 IS NEVER A
-0.3010 IS NOW WELL
-0.3010 IS TAKEN AMIDST
-0.3010 IS TOO COSTLY;
-0.7782 IT HAS BEEN
-0.7782 IT HAS BEEN.
-0.7782 IT HAS NOT
-0.3010 IT MUST BE
-0.3010 ITS SIGHTS. </s>
-0.3010 JOBS SHED; BUSINESSES
-0.3010 JOURNEY HAS NEVER
-0.3010 KHE SANH. </s>
-0.3010 KNOW THIS, AMERICA
-0.3010 LABOR, WHO HAVE
-0.3010 LAND — A
-0.3010 LASH OF THE
-0.3010 LEISURE OVER WORK,
-0.3010 LESS MEASURABLE BUT
-0.3010 LESS PROFOUND IS
-0.3010 LESS. IT HAS
-0.3010 LIKE CONCORD AND
-0.3010 LONG HAVE STRANGLED
-0.3010 LONG, RUGGED PATH
-0.3010 LOST; JOBS SHED;
-0.3010 LOWER ITS SIGHTS.
-0.3010 MAKE HARD CHOICES
-0.3010 MAKERS OF THINGS
-0.3010 MALIA OBAMA AT
-0.3010 MANY. THEY WILL
-0.3010 MANY; AND EACH
-0.3010 MEASURABLE BUT NO
-0.3010 MEASURE OF HAPPINESS.
-0.3010 MEN AND WOMEN
-0.3010 MET EASILY OR
-0.3010 MIDST OF CRISIS
-0.3010 MINDFUL OF THE
-0.3010 MOMENTS, AMERICA HAS
-0.3010 MORE OFTEN MEN
-0.6021 MUST BE EARNED.
-0.6021 MUST BE WITH
-0.3010 MUST LOWER ITS
-0.3010 MY FELLOW CITIZENS:
-0.3010 NAGGING FEAR THAT
-0.3010 NATION FOR A
-0.3010 NATION IS AT
-0.3010 NATION, AS WELL
-0.3010 NATION, BUT IN
-0.3010 NATION, WE UNDERSTAND
-0.3010 NETWORK OF VIOLENCE
-0.3010 NEVER A GIVEN.
-0.3010 NEVER BEEN ONE
-0.3010 NEW AGE. HOMES
-0.3010 NEW LIFE. </s>
-0.3010 NEXT GENERATION MUST
-0.3010 NO LESS PROFOUND
-0.3010 NOBLE IDEA, PASSED
-0.3010 NORMANDY AND KHE
-0.3010 NOT BE MET
-0.3010 NOT BEEN THE
-0.3010 NOT SIMPLY BECAUSE
-0.3010 NOW TAKEN THE
-0.3010 NOW WELL UNDERSTOOD.
-0.3010 OATH IS TAKEN
-0.3010 OATH. THE WORDS
-0.3010 OBAMA AT THE
-0.3010 OBAMA'S INAUGURATION. </s>
-0.3010 OBSCURE IN THEIR
-0.3010 OCEANS IN SEARCH
-0.3010 OF A NEW
-0.3010 OF AMERICANS. </s>
-0.3010 OF CONFIDENCE ACROSS
-0.3010 OF CRISIS IS
-0.3010 OF CRISIS, SUBJECT
-0.3010 OF GREED AND
-0.3010 OF HAPPINESS. </s>
-0.3010 OF OBAMA'S INAUGURATION.
-0.6021 OF OUR FORBEARERS,
-0.6021 OF OUR NATION,
-0.3010 OF PEACE. YET,
-0.3010 OF PROSPERITY AND
-0.3010 OF PURPOSE OVER
-0.3010 OF RICHES AND
-0.3010 OF SASHA AND
-0.3010 OF SCRIPTURE, THE
-0.3010 OF SHORT-CUTS OR
-0.3010 OF SOME, BUT
-0.7782 OF THE SACRIFICES
-0.7782 OF THE SKILL
-0.7782 OF THE WHIP
-0.3010 OF THINGS —
-0.3010 OF THOSE IN
-0.3010 OF TIME. BUT
-0.3010 OF VIOLENCE AND
-0.3010 OFFICE, BUT BECAUSE
-0.3010 OFTEN MEN AND
-0.3010 OFTEN THE OATH
-0.3010 ON FROM GENERATION
-0.3010 ON NOT SIMPLY
-0.3010 ON THE PART
-0.3010 ON THIS DAY,
-0.3010 ONE OF SHORT-CUTS
-0.3010 ONLY THE PLEASURES
-0.3010 OR IN A
-0.3010 OR SEEK ONLY
-0.3010 OR SETTLING FOR
-0.3010 OR VISION OF
-0.3010 OUR ADVERSARIES AND
-0.3010 OUR ANCESTORS. I
-0.3010 OUR BETTER HISTORY;
-0.3010 OUR COLLECTIVE FAILURE
-0.3010 OUR ECONOMY IS
-0.3010 OUR ENDURING SPIRIT;
-0.3010 OUR FORBEARERS, AND
-0.3010 OUR FOUNDING DOCUMENTS.
-0.3010 OUR HEALTH CARE
-0.3010 OUR JOURNEY HAS
-0.3010 OUR LAND —
-0.3010 OUR NATION IS
-0.6021 OUR NATION, AS
-0.6021 OUR NATION, WE
-0.3010 OUR PLANET. </s>
-0.3010 OUR POLITICS. </s>
-0.3010 OUR SCHOOLS FAIL
-0.3010 OVER CONFLICT AND
-0.3010 OVER FEAR, UNITY
-0.3010 OVER WORK, OR
-0.3010 PACKED UP THEIR
-0.3010 PART OF SOME,
-0.3010 PASSED ON FROM
-0.3010 PATH FOR THE
-0.3010 PATH TOWARDS PROSPERITY
-0.3010 PEACE. YET, EVERY
-0.3010 PEOPLE HAVE REMAINED
-0.3010 PETTY GRIEVANCES AND
-0.6021 PICTURES OF OBAMA'S
-0.6021 PICTURES OF SASHA
-0.3010 PLACES LIKE CONCORD
-0.3010 PLEASURES OF RICHES
-0.3010 PLOWED THE HARD
-0.3010 POSSESSIONS AND TRAVELED
-0.3010 PRECIOUS GIFT, THAT
-0.3010 PREFER LEISURE OVER
-0.3010 PREPARE THE NATION
-0.3010 PRESIDENT BUSH FOR
-0.3010 PRESIDENTIAL OATH. THE
-0.3010 PROCLAIM AN END
-0.3010 PROFOUND IS A
-0.3010 PROMISE THAT ALL
-0.3010 PROMISES, THE RECRIMINATIONS
-0.6021 PROSPERITY AND FREEDOM.
-0.6021 PROSPERITY AND THE
-0.3010 PURPOSE OVER CONFLICT
-0.3010 PURSUE THEIR FULL
-0.3010 RAGING STORMS. AT
-0.3010 RATHER, IT HAS
-0.3010 REAFFIRM OUR ENDURING
-0.3010 REAFFIRMING THE GREATNESS
-0.3010 REAL. THEY ARE
-0.3010 RECRIMINATIONS AND WORN-OUT
-0.3010 REMAIN A YOUNG
-0.3010 REMAINED FAITHFUL TO
-0.3010 RICHES AND FAME.
-0.3010 RISING TIDES OF
-0.3010 RISK TAKERS, THE
-0.3010 RUGGED PATH TOWARDS
-0.3010 SACRIFICES BORNE BY
-0.3010 SAPPING OF CONFIDENCE
-0.3010 SASHA AND MALIA
-0.3010 SAY TO YOU
-0.3010 SCHOOLS FAIL TOO
-0.3010 SCRIPTURE, THE TIME
-0.3010 SEARCH OF A
-0.3010 SEE PICTURES OF
-0.3010 SEEK ONLY THE
-0.3010 SERIOUS AND THEY
-0.3010 SERVICE TO OUR
-0.3010 SET ASIDE CHILDISH
-0.3010 SETTLED THE WEST;
-0.3010 SETTLING FOR LESS.
-0.3010 SHED; BUSINESSES SHUTTERED.
-0.3010 SHORT SPAN OF
-0.3010 SHORT-CUTS OR SETTLING
-0.3010 SHOWN THROUGHOUT THIS
-0.3010 SHUTTERED. OUR HEALTH
-0.3010 SIMPLY BECAUSE OF
-0.3010 SKILL OR VISION
-0.6021 SO IT HAS
-0.6021 SO IT MUST
-0.3010 SO OFTEN THE
-0.3010 SOME CELEBRATED BUT
-0.3010 SOME, BUT ALSO
-0.3010 SPAN OF TIME.
-0.3010 SPIRIT; TO CHOOSE
-0.3010 SPOKEN DURING RISING
-0.3010 STAND HERE TODAY
-0.3010 STATISTICS. LESS MEASURABLE
-0.3010 STILL WATERS OF
-0.3010 STORMS. AT THESE
-0.3010 STRANGLED OUR POLITICS.
-0.3010 STRENGTHEN OUR ADVERSARIES
-0.3010 SUBJECT TO DATA
-0.3010 SWEATSHOPS AND SETTLED
-0.3010 TAKEN AMIDST GATHERING
-0.3010 TAKEN THE PRESIDENTIAL
-0.3010 TAKERS, THE DOERS,
-0.3010 TASK BEFORE US,
-0.3010 THANK PRESIDENT BUSH
-0.3010 THAT ALL ARE
-0.3010 THAT AMERICA'S DECLINE
-0.3010 THAT FOR FAR
-0.3010 THAT GREATNESS IS
-0.3010 THAT NOBLE IDEA,
-0.3010 THAT PRECIOUS GIFT,
-0.7782 THAT THE CHALLENGES
-0.7782 THAT THE NEXT
-0.7782 THAT THE WAYS
-0.3010 THAT WE ARE
-0.3010 THE CHALLENGES WE
-0.3010 THE DOERS, THE
-0.3010 THE FAINT-HEARTED —
-0.3010 THE GENEROSITY AND
-0.3010 THE GOD-GIVEN PROMISE
-0.3010 THE GREATNESS OF
-0.3010 THE HARD EARTH.
-0.3010 THE IDEALS OF
-0.3010 THE INAUGURATION. </s>
-0.3010 THE INDICATORS OF
-0.3010 THE LASH OF
-0.3010 THE LONG, RUGGED
-0.3010 THE MAKERS OF
-0.3010 THE MIDST OF
-0.3010 THE NATION FOR
-0.3010 THE NEXT GENERATION
-0.3010 THE OATH IS
-0.3010 THE PART OF
-0.3010 THE PATH FOR
-0.3010 THE PEOPLE HAVE
-0.3010 THE PETTY GRIEVANCES
-0.3010 THE PLEASURES OF
-0.3010 THE PRESIDENTIAL OATH.
-0.3010 THE RECRIMINATIONS AND
-0.3010 THE RISK TAKERS,
-0.3010 THE SACRIFICES BORNE
-0.3010 THE SKILL OR
-0.3010 THE STILL WATERS
-0.3010 THE TASK BEFORE
-0.3010 THE TIME HAS
-0.3010 THE TRUST YOU
-0.3010 THE WAYS WE
-0.3010 THE WEST; ENDURED
-0.3010 THE WHIP AND
-0.6021 THE WORDS HAVE
-0.6021 THE WORDS OF
-0.3010 THEIR FEW WORLDLY
-0.3010 THEIR FULL MEASURE
-0.3010 THEIR LABOR, WHO
-0.3010 THESE ARE THE
-0.3010 THESE MOMENTS, AMERICA
-0.6021 THEY ARE MANY.
-0.6021 THEY ARE SERIOUS
-0.3010 THEY FOUGHT AND
-0.3010 THEY PACKED UP
-0.3010 THEY TOILED IN
-0.6021 THEY WILL BE
-0.6021 THEY WILL NOT
-0.3010 THINGS — SOME
-0.3010 THINGS. THE TIME
-0.3010 THIS DAY, WE
-0.3010 THIS GENERATION OF
-0.3010 THIS TRANSITION. </s>
-0.3010 THIS, AMERICA —
-0.3010 THOSE IN HIGH
-0.3010 THOSE WHO PREFER
-0.3010 THREATEN OUR PLANET.
-0.3010 THROUGHOUT THIS TRANSITION.
-0.3010 TIDES OF PROSPERITY
-0.3010 TIME HAS COME
-0.3010 TIME. BUT KNOW
-0.3010 TO CARRY FORWARD
-0.3010 TO CHOOSE OUR
-0.3010 TO DATA AND
-0.3010 TO GENERATION: THE
-0.3010 TO MAKE HARD
-0.6021 TO OUR FOUNDING
-0.6021 TO OUR NATION,
-0.3010 TO PROCLAIM AN
-0.3010 TO PURSUE THEIR
-0.3010 TO REAFFIRM OUR
-0.3010 TO SET ASIDE
-0.6021 TO THE IDEALS
-0.6021 TO THE PETTY
-0.3010 TO YOU THAT
-0.3010 TODAY HUMBLED BY
-0.3010 TODAY I SAY
-0.3010 TOILED IN SWEATSHOPS
-0.3010 TOO COSTLY; OUR
-0.3010 TOO LONG HAVE
-0.3010 TOO MANY; AND
-0.3010 TOWARDS PROSPERITY AND
-0.3010 TRAVELED ACROSS OCEANS
-0.3010 TRUE TO OUR
-0.3010 TRUST YOU HAVE
-0.3010 UNDERSTAND THAT GREATNESS
-0.3010 UNDERSTOOD. OUR NATION
-0.3010 UNITY OF PURPOSE
-0.3010 UP THE LONG,
-0.3010 UP THEIR FEW
-0.3010 US UP THE
-0.3010 US, GRATEFUL FOR
-0.7782 US, THEY FOUGHT
-0.7782 US, THEY PACKED
-0.7782 US, THEY TOILED
-0.3010 USE ENERGY STRENGTHEN
-0.3010 VIOLENCE AND HATRED.
-0.3010 VISION OF THOSE
-0.3010 WAR, AGAINST A
-0.3010 WATERS OF PEACE.
-0.3010 WAYS WE USE
-0.3010 WE ARE IN
-0.3010 WE COME TO
-0.3010 WE FACE ARE
-0.3010 WE GATHER BECAUSE
-0.3010 WE HAVE CHOSEN
-0.3010 WE REMAIN A
-0.3010 WE THE PEOPLE
-0.3010 WE UNDERSTAND THAT
-0.3010 WE USE ENERGY
-0.3010 WEAKENED, A CONSEQUENCE
-0.3010 WELL AS THE
-0.3010 WELL UNDERSTOOD. OUR
-0.3010 WEST; ENDURED THE
-0.3010 WHIP AND PLOWED
-0.3010 WHO HAVE CARRIED
-0.3010 WHO PREFER LEISURE
-0.3010 WILL BE MET.
-0.3010 WILL NOT BE
-0.3010 WITH THIS GENERATION
-0.3010 WOMEN OBSCURE IN
-0.3010 WORDS HAVE BEEN
-0.3010 WORDS OF SCRIPTURE,
-0.3010 WORK, OR SEEK
-0.3010 WORLDLY POSSESSIONS AND
-0.3010 WORN-OUT DOGMAS, THAT
-0.3010 YET, EVERY SO
-0.3010 YOU HAVE BESTOWED,
-0.3010 YOU THAT THE
-0.3010 YOUNG NATION, BUT
-0.3010 — A NAGGING
-0.3010 — FOR THOSE
-0.3010 — SOME CELEBRATED
-0.3010 — THEY WILL

\end\
